svm_type c_svc
kernel_type linear
nr_class 2
total_sv 9
rho 0.053011542554827339
label 1 -1
nr_sv 4 5
SV
1 1:2.903593 2:2.586607 
1 1:2.327716 2:3.288597 
1 1:7.3424 2:6.61337 
0.84338122824448714 1:2.740701 2:3.7001 
-1 1:6.16346 2:5.905765 
-1 1:0.820871 2:1.367334 
-1 1:5.850043 2:5.139801 
-0.53198296702855308 1:2.084751 2:1.099798 
-0.311398261215934 1:6.208694 2:5.113237 
